digraph Tree {
node [shape=box] ;
0 [label="target <= 0.5\ngini = 0.5\nsamples = 2017\nvalue = [997, 1020]\nclass = dislike"] ;
1 [label="gini = 0.0\nsamples = 997\nvalue = [997, 0]\nclass = like"] ;
0 -> 1 [labeldistance=2.5, labelangle=45, headlabel="True"] ;
2 [label="gini = 0.0\nsamples = 1020\nvalue = [0, 1020]\nclass = dislike"] ;
0 -> 2 [labeldistance=2.5, labelangle=-45, headlabel="False"] ;
}